digraph Tree {
node [shape=box] ;
0 [label="X[2] <= 0.5\nentropy = 0.9607\nsamples = 891\nvalue = [549, 342]"] ;
1 [label="X[5] <= 26.2687\nentropy = 0.6992\nsamples = 577\nvalue = [468, 109]"] ;
0 -> 1 [labeldistance=2.5, labelangle=45, headlabel="True"] ;
2 [label="entropy = 0.5578\nsamples = 415\nvalue = [361, 54]"] ;
1 -> 2 ;
3 [label="entropy = 0.9243\nsamples = 162\nvalue = [107, 55]"] ;
1 -> 3 ;
4 [label="X[0] <= 2.5\nentropy = 0.8237\nsamples = 314\nvalue = [81, 233]"] ;
0 -> 4 [labeldistance=2.5, labelangle=-45, headlabel="False"] ;
5 [label="entropy = 0.2988\nsamples = 170\nvalue = [9, 161]"] ;
4 -> 5 ;
6 [label="entropy = 1.0\nsamples = 144\nvalue = [72, 72]"] ;
4 -> 6 ;
}